solver_type L1R_LR
nr_class 2
label 2 6
nr_feature 727
bias -1
w
0 
0 
0 
0 
0 
0 
0 
0 
0 
0 
0 
0 
0 
0 
0 
0 
0 
0 
0 
0 
0 
0 
0 
0 
0 
0 
0 
0 
0 
0 
0 
0 
0 
0 
0 
0 
0 
0 
0 
0 
0 
0 
0 
0 
0 
0 
0 
0 
0 
0 
0 
0 
0 
0 
0 
0 
0 
0 
0 
0 
0 
0 
0 
0 
0 
0 
-0.89397632492979373 
-0.3816398146371347 
-0.09793299061197655 
-0.54065704857176122 
-0.15855448347525641 
-0.12405778759912603 
0 
-0.20838142575543475 
-0.42438321613648172 
-0.35297590288249087 
0 
-0.78537693176599555 
0 
0 
0 
0 
0 
0 
0 
0 
0 
0 
0 
0 
0 
0 
-0.041789327302481707 
0 
0.27791497107061569 
0 
0.40097062642659947 
0.23307254986339335 
0.096712849242209908 
0 
0 
-0.0071234145210780295 
-0.47278690556061198 
-0.33229694135831572 
-0.80588456272207021 
-0.12346130933297389 
-2.3048704803925348 
-0.37834568540736219 
0 
0 
0 
0 
0 
0 
0 
0 
0 
0 
0.55996073311636496 
0 
0.04858887468998685 
0.59249494923124291 
0.51879523015335827 
0.29817661368525533 
0.57757258836585668 
0.22713246298123674 
0.65410278887467044 
0.14706197886001315 
0.1946919004584993 
-0.078814667135734887 
-0.13630113323728177 
-0.2006843346353408 
-0.47687683309875395 
-0.5738777619650961 
-0.49216552030575461 
-1.7687412768291595 
0 
0 
0 
0 
0 
0 
0 
0 
0 
0 
0.32423143747037353 
0.080412908601085492 
0.075316754993120988 
0.22810013098800253 
0 
0.32553524501528053 
0.21040149002584513 
0.32619459378580395 
0.2337126639315156 
0.16533888690938719 
0.49956764142147586 
0 
0.0024951115851251839 
-0.30605972678513249 
-0.34812432254197989 
-0.033762270248830717 
-0.22379199815998344 
-1.4508414848410591 
-2.851395426149641 
0 
0 
0 
0 
0 
0 
0 
0 
0 
0.0073158476272464868 
-0.060833080622068644 
-0.14287026679127654 
0 
0.1728590007775227 
0.31283162532967757 
0.11127333140368777 
0.16152130047982483 
0 
-0.010977392419964298 
0.2379737970434298 
0.26291496064522707 
-0.0027731063974183179 
0.62150208312895738 
-0.076174336579200849 
0.087468558461515855 
0.32117800713618117 
0 
-4.1376082378717705 
-0.72395340786764872 
0 
0 
0 
0 
0 
0 
0 
0 
1.0261462741017837 
-0.51346605755370089 
-0.056844021042174189 
0.22550027503263698 
0.19105031711307982 
0.044094141238805111 
0 
0.18548693014976286 
0.1540918333640835 
0.13144751717751438 
0.025879948895385113 
0.012345267793295606 
0.26903313516258465 
0.47404386373814938 
0 
0.0069180988694189172 
0.58571094766183163 
0 
0 
0 
0 
0 
0 
0 
0 
0 
0 
0 
0.27016808151632404 
0.13293922317667303 
0 
0.12116985382783019 
-0.001810971424047225 
0.019501784181301926 
0.17444549270880666 
0.13304569337344319 
0.41393216162837321 
0.42973015238875384 
0.51275296563911821 
0 
0.35550619400041705 
0.45547541786945173 
0.50107210848529282 
0.13479678079723095 
0.53884037409114394 
2.1369641482965989 
0 
0 
0 
0 
0 
0 
0 
0 
0 
0 
0.13413520068397886 
0 
-0.037651905281255706 
0.16821649819580725 
0.30750584626631039 
0.025115083180275773 
0.24451563116226821 
0.18432546424648288 
0.00030187095739483971 
0.77963338325066911 
0.12066310639413283 
1.7872178312050662 
0.18241993148070201 
0.45152144077261114 
0 
0.35437070066202619 
0.24213428515847318 
0 
0 
0 
0 
0 
0 
0 
0 
0 
0 
0.65876448542516253 
0.403842259853536 
0.17221368304842899 
-0.25831204529567264 
-0.25304043699683537 
-0.054940204712945445 
0.21591617130428634 
0.087500797774365591 
0.25650759360320108 
0.54268400270075456 
0.34964274775263765 
0.030985628069479347 
0.83818035004981162 
0.21430090801283624 
0.47262699961946691 
0.48410543908550352 
0.2212316370042765 
0.12895783647768727 
-0.3513110256571248 
-3.3529792390358124 
0 
0 
0 
0 
0 
0 
0 
0 
0 
0.21509819282098552 
0 
-0.22728206415038213 
-0.56956660960266758 
-0.59554513347570148 
-0.56730472373615193 
-0.56816211018721174 
-1.0426442214073219 
-0.028411937384327821 
0.31695362920795106 
0.099292572374321986 
-0.091846653133657433 
0.073596848338547932 
0.48736729897902659 
0.050206460698077437 
-0.2586260416910221 
-0.4882026311268497 
-0.79772191879172716 
0 
0.65490044100509304 
0 
0 
0 
0 
0 
0 
0 
0.25329009349063275 
-0.42537830204509752 
-0.41317642324244952 
-0.59902691297312316 
-0.59045780193693098 
-0.066133381101365019 
-0.28091814167656487 
-0.31873048555399508 
-0.59097800226027664 
0.010901538386737363 
0.17462815252862401 
0 
-0.042396670298940183 
0.19031650697641764 
0.38270165577914644 
0.054689932530499585 
-0.39265845313785869 
-0.82122710502219198 
-2.1824559847021932 
0 
2.5763704377680106 
0 
0 
0 
0 
0 
0 
0 
-0.47508627896339711 
-1.3539126209140906 
-0.86131536431594191 
-0.051956908764614063 
0 
-1.9445146517867706 
0.16305486610824546 
-0.039964038575411913 
0.21255446385906474 
0.090292381323688678 
-0.21059667657874226 
-0.01482086636899918 
-0.03262944849025623 
0.02710434689883948 
0 
-0.26623362086946267 
-0.25281848199369444 
-0.62718741868757477 
-0.58606585550659551 
0.62478943486111749 
0.4201721444026314 
4.695336843937107 
0 
0 
0 
0 
0 
0 
-1.252826185334619 
-0.35029034835647133 
-0.3198383162039159 
-0.77310247061030013 
-0.0039945963015245861 
0.3507849791910771 
-0.27795218264587207 
-0.16564054042238846 
0.29111995872204188 
0.10478586851310839 
-0.011707539144980097 
-0.053574814646025481 
0.014256871314107642 
-0.0053426972729536028 
-0.44587103358715924 
-0.11567775921886397 
-0.043969193399961026 
-0.11608220575804765 
0 
0 
0.19669031792260355 
0 
0 
0 
0 
0 
0 
2.1546247747038256 
0.11016767909308339 
0.11073912829645871 
-0.096320135477661134 
-0.14800076743339222 
-0.32865078225229338 
-0.012571762607817389 
-0.39638056322997295 
-0.02635764358112741 
0.03306158029741435 
-0.022121829197155534 
0.069291623207476088 
0.0021073844001958837 
0.011738881184620811 
0 
0.014725838394329727 
-0.15832107186778693 
-0.13574913119430354 
0.012807947643701008 
-0.15652278002902861 
0.27597233438416546 
0.19337540882390922 
2.4925400640496207 
0 
0 
0 
0 
0 
0.28788333396134175 
0.046557008315997607 
0.024209223381110541 
-0.19197187405998381 
-0.17057646501137599 
0.050136731077451445 
-0.12242821852548103 
-0.12382971969127744 
0.27496630393232402 
0.13422008434402549 
0 
0.17845197204221641 
0.16573552714177192 
0.042547818790027801 
0.026455574473784948 
0 
0.097445602852062635 
0.034264162590947889 
0 
0.57196054363891846 
0 
0.19639332137397544 
3.2458861991618662 
0 
0 
0 
0 
0 
0.84145192942718849 
0.086922945689797582 
0.49024978228126603 
0.030286043204759867 
-0.064609230697252606 
-0.010155639794501773 
-0.25927052228789554 
-0.22985278793136277 
0.091591342933566466 
-0.055971034138637514 
-0.0011316169263016033 
0.42661741099103567 
0.11587215959764205 
0.34971179333420538 
-0.081420379552227834 
-0.037251738153149999 
0.12876435520579732 
0.24233320649480172 
0.13643904128777626 
0 
0.21847021732198141 
0.92627186948675955 
0 
0 
0 
0 
0 
0 
2.7201661807758759 
1.1714063127753322 
0.53616022910270855 
0.28596674562417895 
-0.19110980273867856 
0.038833984428893208 
-0.21727295371802888 
-0.027134004923409626 
-0.18619158269911038 
0.076907289456435685 
0 
-0.088044500264265232 
0 
-0.088179218912986204 
-0.24014057578420914 
0.12384309641308264 
0.007644874117465659 
0.11483114795907391 
0.26207272586305425 
0.085580778085304718 
0.7528066397516785 
0 
0.33291911049483347 
0 
0 
0 
0 
0 
0 
0.12690838291049289 
0.26882238631735927 
0.24132878463036689 
0.21452450741929679 
0.013068464551497138 
-0.22313636929549269 
-0.25430263064769143 
-0.27388938674327462 
-0.22896219857671801 
-0.16781054390703584 
-0.14488291269641729 
0.017927665978330572 
0.044400016102482148 
-0.046863582958523956 
-0.032188126703872853 
0.063943598574115662 
-0.044432802333353394 
0.071945194998734752 
0.46895863996236914 
0.069568571457835224 
1.7918994037441294 
0.31685885307321349 
0 
0 
0 
0 
0 
0.10408645059045464 
0.25385022230205689 
0.61751365195592156 
0.26882230497212689 
0.060950345235631587 
0.15502130493779287 
-0.18057961844676654 
-0.041572851548123339 
-0.33643551878013889 
-0.40687814631162389 
-0.32043113916226357 
-0.46092728928063076 
-0.28592220110901423 
-0.16968181123177517 
-0.054602802496155123 
0.29389325603598443 
-0.10720001380899563 
-0.011386723859976324 
0.41297936323345014 
0.063033800001644436 
0.74931710792923489 
0 
0 
0 
0 
0 
0 
0 
0.19425890525701867 
0.82922435554300988 
0.79505625311872419 
0 
-0.0091513844837031698 
0.084510699755112523 
0 
-0.077467957864566922 
-0.30215819939612204 
-0.45677701303141305 
-0.60753194740711369 
-0.42488512413100521 
0.065602037971755511 
-0.14476639723439361 
0 
0.083044637761484547 
0.29951201972307617 
-0.025821482652391658 
0.36615692806224043 
0.20688411257512357 
0.0060999916732894736 
0 
0 
0 
0 
0 
0 
0 
0 
0 
1.1825422364442428 
0.8595293174014651 
0.19667152587317099 
0.17720579444786258 
0 
0.093784799761050266 
-0.12719039885300601 
-0.45316645511459996 
-0.20194367471595026 
-0.54316556831197427 
0 
0.0031298570872131531 
0.017732916921329608 
0.021512532443204634 
0 
0 
0.32372974908151381 
0.024453326554230697 
0 
0 
0 
0 
0 
0 
0 
0 
0 
0 
0 
0.11546531964330189 
0.50751118593883238 
0.2762508970645956 
0.43575844272374803 
0.54250384209459113 
0 
0 
0 
-0.32651447110815673 
0 
0.031269204223584826 
0 
0.13680879090221973 
0.97053534687310083 
0.13767089369663479 
1.0016842262061862 
0 
0 
0 
0 
0 
0 
0 
0 
0 
0 
0 
0 
0 
0 
0.62267596598860153 
0.45388307438484649 
0 
0.18210906084743272 
0 
0 
0 
0 
0.70865414952554195 
0 
0.70932933646874707 
0 
0.17551224826578626 
0 
0 
0 
0 
0 
0 
0 
0 
0 
0 
0 
0 
0 
0 
0 
0 
0 
0 
0 
0 
0 
0 
0 
0 
0 
0 
0 
0 
0 
0 
0 
0 
0 
